var game = new GameManager(4, KeyboardInputManager, HTMLActuator, LocalStorageManager);
game.restart();

var brain = new Brain();
window.brain = brain;

setTimeout(run, 500);
var scores = [];

var datEl0 = document.createElement("p");
var datEl1 = document.createElement("p");
var datEl2 = document.createElement("p");
var speedEl = document.createElement("input");
var cont = document.getElementsByClassName("container")[0];
var body = document.getElementsByTagName("body")[0];
body.insertBefore(datEl0, cont);
body.insertBefore(datEl1, cont);
body.insertBefore(datEl2, cont);
body.insertBefore(speedEl, cont);

var moves = 0;
var generation = 0;

window.speed = 1000;

var moveNet = new network([256, 10, 4], 1);
moveNet.import({"layers":[{"size":10,"neurons":[{"weights":[-0.650037333502274,0.33817345463378445,0.5815220602169653,0.7722502429373873,-0.03459883617700244,-0.7920247844115293,0.5433203491584503,-0.940301710671575,-0.7472201185300946,0.5934845255687833,-0.5700599830597639,-0.8941272082738578,-0.12712465040385723,0.7628853763453662,-0.06199362734332681,-0.5863018147647381,0.09437805270801286,-0.44179247840224894,-0.7314863938209246,-0.12725580059357228,-0.4983152304626309,-0.8515616264473213,-0.09086650678219926,-0.606639132857278,0.3167191498654334,-0.3235961585305631,0.7103119120001793,-0.16565542155876756,0.2613769629970193,-0.5841793208383024,0.2571113742887974,0.8184364037588239,-0.6722605690155515,0.17308905855036388,-0.37708843908818634,0.6887361550497805,0.5884656344978899,0.7524825615476786,-0.9009984421606045,0.1796706524307453,0.9477333710389125,-0.7693306393921375,0.19598397053778172,0.652949889190495,-0.45876668440178037,-0.1818872462026775,-0.7836577482521534,-0.18073049001395702,-0.21039040589990263,0.13731672452446922,-0.15535798928397784,0.0378581600316838,0.7691887809426271,0.5745170877464317,-0.5684074516052806,0.7826595203951001,0.36781084770336747,0.885700473561883,0.20748802414163947,-0.004527587443590164,-0.6523667192086577,0.9658342669717968,0.8358639325015247,-0.15675121592357755,1.2057235027821496,-0.663695043390667,-0.9273423423892885,-0.906826581444588,-0.11428644991177642,-0.23540190941848704,0.5326439091281812,-0.5490489043295383,-0.33290635934099555,0.6439150427468121,0.52708734665066,0.5079769664444029,0.030640251468867064,-0.15226037940010428,-0.37380456971004605,-0.5577119253575802,-0.937254759676043,-0.5692992763366107,0.15877558693850835,0.3085989452847578,0.677226180300702,-0.3853697695640742,0.053422742959593206,0.6582239635098972,0.946755160111934,-0.6955591607838869,0.09912820672616363,0.23706598533317447,-0.49596311151981354,0.9709649812430143,-0.68213313492015,0.20784654607996345,0.10782702368904261,0.39239698173079995,0.6695130552524234,0.26478150671328077,0.20614657369650166,0.05364859483298637,0.17571309167178437,0.6676651363394652,0.07719542179256678,-0.9985014335252345,0.25772154657170177,-0.29092227946966887,-0.014990098774433136,0.48097228026017547,0.9262422984465957,-0.50315983267501,-1.0193167692927168,-1.072027332506618,-0.5414293987697772,-0.648212321097823,-0.5554849708571654,0.6916043297305499,0.3966898677240685,0.19197009407019006,0.33853562781587243,-0.9511446058750153,-0.2606231798417866,-0.5175047591328621,0.37029824918136,-0.9032170567661524,0.16246161283925176,-0.08879997488111258,0.7493280335083955,-1.0901285933069707,-1.1827862441959263,-0.9888950066321307,0.31932896823372664,0.21687734135911027,-0.886309928393826,-0.5429542726410649,0.04724660096690059,0.8899195641279221,0.05129848467186093,-0.0904028438962996,0.9519983478821814,-0.2645937642082572,0.4759302455931902,0.06931569520384073,0.9446295386128838,0.43400817250816953,-0.01351380093738647,-0.808525804952788,-0.13507846590466394,-0.2536431445128671,0.24392289667931025,0.66944504002125,0.10665553669702738,0.5061641978099942,0.905505963601172,-0.653939173091203,0.6041415529325604,-0.5134391938336194,-0.2109589371830225,-0.6194963180460036,-0.7564414705254845,-0.8868217605802873,-0.6347455238700801,-0.18361267848873405,-0.625951233534166,0.6142455757029689,0.9816541617019122,0.16946469432872993,-0.07227996425911078,0.6984506957232952,-0.14287514705210924,-0.7186310240067542,-0.17597376182675362,-0.11014883406460285,0.8894243100658059,-0.795735293533653,-0.21206947742977195,0.28792881531354686,0.5770367847428078,0.77923926185861,0.6242945456293697,-0.17560117437671774,0.49362668746965926,0.6637449492700398,0.4048778275027871,-0.61522495187819,0.7107297438196838,-0.5426544966176152,-0.7535792174749076,-0.3015310219489038,0.2260596053674817,0.7600887757726014,-0.19005724633088347,0.22125036326391975,0.08878784689730847,-0.9965259184946853,-0.24878851309671368,0.11762105082021938,0.520213134800873,-0.9513695114292204,-0.061442071571946144,0.8462828481569886,-0.8102990882471204,-0.2503514993004501,0.9494246626272798,0.9216878707520664,-0.9090876863338053,0.6696386756375432,0.04852018633015328,-0.6944934882159582,-0.5003877043808985,-1.124014031944606,0.39139608181545105,-0.29448765836022667,0.6430614077290245,-0.30788945588405414,0.8468164335936308,-0.9800486671738327,0.8095607771538198,-0.9920254060998559,-0.8916024900972843,0.8758082329295576,-0.4141823425889015,-0.23172186501324177,0.23525544864739362,-0.4233306110670635,0.6411678765187959,0.19551285196101695,0.4178109704397143,0.6741843082382096,-0.27898212502584463,-0.36835152050480247,-0.6499770474620163,-0.21617454336956143,-0.7467050766572356,-0.4095156406983733,0.9571465165354311,0.08656196435913444,-0.0037938570603728294,0.5199307100847363,-1.1077087451409726,-0.24635934346245353,-0.7740144544196246,0.1255894527432005,-0.6050777369523227,-0.30347839070540233,0.4737100145950995,-0.8473558174446225,-0.8846931625157595,-0.1817461014725268,-0.14965844247490168,0.33747431030496955,-0.30133489426225424,-0.17238047905266285,0.9320087479427457,-0.6890731891617179],"bias":-1.174929033875132},{"weights":[-0.42141166565297006,0.24645180192341304,0.9012429547270344,0.6404184008840169,0.3776637031038035,0.12132007914173047,-0.6302811458481554,-0.8201463505223109,-0.7257656618021429,-0.5688472855836153,0.7521999459713697,-0.7646795972250402,-0.22973167011514306,0.9187398152425885,-0.05573519831523299,0.25412628054618835,-1.2631953254463564,-0.25297341794503575,-0.3630066006205885,-0.8835464455951532,-0.7738886848883443,-0.6702068801029237,-0.16673465645919378,0.5944716615671712,0.2362145196859884,0.5181996268220246,0.2852343311533332,-0.11466277344152331,-0.418012916110456,0.16655203979462385,-0.22423409996554255,0.2166923345066607,-0.18005155318165791,-0.1486716251775801,-0.5128467622201083,-0.2929067801258646,-0.7288948671181515,-0.49994054154378686,0.08380221336850537,-0.5363709374754032,-0.9587963298015132,0.2689386960119009,-0.3448983686976135,0.627785284537822,0.0013254624791443348,-0.8921919856220484,0.6946887420490384,-0.04083658428862691,1.0119837531023768,-0.219580363047433,-0.6607785598852491,-0.1907747077940593,-0.553132543243427,-0.7904636530025706,-0.3272133747256166,0.9251827411353588,0.018393173813819885,0.7692721085622907,0.9765140293166041,-0.19183680275455117,0.23561226530000567,-0.987123872153461,0.9875809219665825,-0.9408872183412313,-1.2192691831474838,0.32711954080335764,-0.18992105764653333,-0.1756814058700244,0.48949109637818,0.0699465539032566,-0.7334876642769691,-0.44519912358373404,-0.28331351932138205,0.7993683251552284,-0.5777957891114056,-0.596388878300786,-0.06650500372052193,-0.39459159737452865,0.75792266568169,0.17662782780826092,-0.7435652244078992,0.06848572478884046,-0.7602830037755467,-0.2628610229594165,-0.29184364182594413,0.3794702287788146,0.506588784953128,0.4867420766376163,0.7635714756324887,0.2069216137751937,0.05767995584756136,-0.7295892904512584,0.3459319528192282,-0.046645335387438536,0.06564443372189999,0.8111850270070136,0.25563234736848633,0.10767102110647417,-0.32238014313848545,-0.08533316156474674,-0.013344498327965294,-0.5828014140248223,-0.1879910942679638,-0.1397369146320487,0.8309986307285726,0.045295479241758585,0.04792304150760174,-0.8482720889151096,0.4912662669084966,0.12516841851174831,-0.08857189631089568,-0.013760504312813282,-0.030135283597661957,0.22525690976655682,0.3368494404191302,0.3478798327992592,0.821500384967957,-0.9094465530714042,-0.5914839154020954,0.9723000175376383,-0.5544912032783031,-0.16820218693464994,0.24416187684983015,-0.9156893063336611,-0.9170871619135141,-0.5468637682497501,0.8665663227438927,0.9604174895212054,-1.7938799248785426,0.42210315950971683,0.2536939971500606,0.7723544663541009,0.07959761651469774,-0.7035921477384353,-0.6920444173867912,-0.7432538961924405,0.5573201677761972,-0.5931483809836209,0.5703595797531307,0.39654005924239755,0.5955263692885637,0.6101551032625139,0.22599363280460238,-0.08955421345308423,-0.2157287572402569,-0.46104581441487713,-0.0389907228020218,0.10816283151407811,0.48261187179201986,0.6882360623017134,-0.21461888045708502,-0.4106844199147698,-0.7920330302231285,0.8657568241469562,0.5857353191822767,0.11478228960186243,0.8585776793770492,0.9816817999817431,0.8219138630665839,0.39163052244111896,0.17810735622326082,0.898729405313324,0.5646629882456515,-0.058120690018137244,0.02132086658843647,-0.7658400332876045,0.5441025007005189,0.5686112510855884,-0.8454668814075723,-0.2427078289911151,0.4995578941889107,-0.04515163041651249,-0.93070880882442,0.28920165728777647,-0.9831400690600276,-0.9172700918279588,1.3755333373893297,-0.537878119955963,-0.3638263239606883,-0.46984346221704265,0.885744296126192,0.26612396168160046,-0.22948989007023354,-0.0019946754910051823,0.8980101430788636,-0.15081470226868987,0.2759484052658081,0.43076109839603305,-0.12523011676967144,-0.7582213627174497,0.17806655261665583,-0.8803903688676655,-2.7069229319815142,0.8442498216880344,0.3214364043330394,0.5734477140514441,0.6031811877501039,0.19303353942462909,-0.18167733430327102,-0.7547163465060294,-0.5573078966699541,0.7319100168533623,-0.6657709060236812,-0.3833696534857154,0.5281729465350509,0.0336993713863194,0.8764668027870357,-0.054494474083185196,0.38980042394843545,-0.26500955767490547,-0.39391342018433495,-0.31325408817144995,0.3876515465804776,-0.4842974160877346,-0.36001464155451424,0.44665740871723736,-0.29847793420776725,-0.41914015356451273,-0.24259139969944954,0.8159232698380947,0.20932527724653482,-0.4595903046429157,0.8398074498400092,0.4310016157105565,1.1628046873703413,-0.032297762666566344,-0.3449630218876607,-0.6460920480156394,-0.7027697949680615,-0.7176232998132239,0.6878047046925264,-0.5357793970033526,-0.9519723569974303,0.6425562193617225,0.14657409163191915,-0.3343535060994327,0.4241346870549023,0.3065442596562207,-0.07867341116070747,0.8615139699541032,1.5050138461286076,-0.883123678905585,-1.047848953228744,-0.7802281990660215,0.4418894918700748,-0.9044058641812677,0.9761836294921162,-0.6552113709039986,0.0641658827662468,-0.3176049212925136,0.47881157184019685,-0.22346599493175745,0.05838707601651549,-0.19267700938507915,-0.8732310370542109,0.3353349333629012],"bias":-1.1435769528909308},{"weights":[1.6485153086318165,0.2030821741921634,-0.01779048224524977,0.30367081208446134,-0.32315688226449324,0.04055513255409526,0.5264880429878096,0.5808411429820974,-0.5795994214713573,0.8762194542214274,0.824690705165267,0.43368892930448055,0.8480068985372782,0.6891715214587748,0.8459378820843995,-0.6563350576907396,0.2028805065769277,0.23684753391231067,-0.3466415087136351,-0.6140997967742854,-0.6760923822427031,-0.028894698366057042,-0.2590659295805614,0.57796378506423,-0.7546121633229042,-0.8009954351000488,0.5778646720573306,-0.3036122443154454,-0.8234189571812749,0.8335664719343185,0.08359567588195205,0.5897212666459382,-0.4754957766868431,-0.24719512556893858,-0.563300262781429,-0.44608104320806313,-0.5265725476071702,-0.5395616133199993,-0.3017604734184123,-0.49023732165530853,-0.7295833841052713,0.55553760798648,0.9595112409442663,-0.7298282133415341,0.19218079093843699,-0.11518556252121925,0.2024432560428977,0.9318413585424423,-0.531867243216499,0.8642146125526283,0.6231655325562498,0.6625548321526851,0.17452354485028435,0.3236285361066899,0.6933259990954845,0.23278905590996146,0.6216771299950778,0.11388110276311636,0.36150567466393113,0.8036824646405876,-0.26747332606464624,0.7133327699266374,0.32274456368759274,0.17406291188672185,0.7479026761146972,-0.041833217020930326,0.29940670946377623,-0.4405915378788502,0.15070212344173273,0.35220555652418806,-0.37992564937480083,-0.4162387321703136,0.06611178023740649,0.962971858214587,-0.688289500772953,-0.39096113853156567,-0.4857546556740999,0.5756349903531373,-0.3838109690696001,-0.8335385993123055,0.6620638224655273,-0.018583956905795593,0.1178850546347695,0.1328722050736291,-0.07988927248182681,0.3375913158037819,0.20124406939724737,0.6566881745847812,0.20843961695209146,-0.42610655492171645,0.44398924661800265,-0.06793850706890225,0.030757243279367685,-0.660007928032428,0.8673321949318051,0.6850876896642148,-0.58378535630209,-0.2019150072061784,-0.34091806825390497,0.004159042387671784,0.031924510207392155,0.1987130901912354,0.2434662973777342,0.3780627792604656,0.22500374214723706,-0.28973447857424617,0.8848128230310977,0.06983206467702985,0.449214655905962,0.15815914049744606,0.7005814691074193,0.44288646057248116,-0.5380348851184834,0.4646040223443867,0.31118496595197526,-0.15094709646265705,0.08629232705302511,-0.8205976230256703,1.0073653293359268,-0.9300179565052836,0.9529021340422332,-0.5505179772153497,-0.6468171654269099,0.9578542052768171,0.6766123655252159,0.7308060326613486,-0.1346309594810009,-0.14709884813055396,2.178624804143333,0.15661663946406154,-0.9235635594567834,-0.8839749133932524,-0.8297653966599919,-0.35021112872539156,0.800968437269705,0.27346117844199647,-0.7946246545761824,-0.1380227254703641,0.3574609952047467,0.10377125861123204,0.1620411602780223,0.48501236364245415,-0.39441314013674855,-0.3391781519167125,0.05375560343285422,-0.40180188440533915,-0.7253200496593507,-0.5604744673008747,-0.7522992877811231,-0.07833481338540596,-0.7292763044689736,0.14012817309120734,0.26787394107638257,-0.10537258582189679,-0.6021873457357287,-0.48059567250311375,-0.493275404907763,-0.8060833658091724,-0.686886930372566,0.43300815438851714,-0.15638109530732036,0.3099441051073878,0.36221041652418445,0.2826892068930101,0.5509988422806424,-0.2625895780519132,-0.2420143661220996,-0.9271973248619217,-0.9535565072279895,0.8113373615778983,0.9287094315513968,-0.39373160526156425,0.4382118512876332,-0.052859469782561064,-0.1562701342627406,-0.47714665392413735,-1.8203522937481604,0.8935833791858702,0.595330718445233,0.6952162553655976,0.7655107699607693,0.7747419549101425,0.44472791855042887,-0.022795693948864937,0.37222268199548125,-0.10249470872804523,-0.851540285628289,-0.424934390000999,-0.9388190917670727,-0.17698965081945062,-0.32838583225384355,0.18060257006436586,3.8417607192230676,-1.269865058898821,-0.6222645868363964,-0.6856655367465958,0.488319042644045,-0.6861946036748783,0.2886782940227749,-0.13389984890818596,0.9373370134271681,-0.9381334548816085,0.8531191004440188,0.7507084291428328,0.6651368229649961,-0.21337381983175874,0.23644417664036155,-0.13680806197226048,0.21179737349247116,-0.286464887830309,0.87125281298374,0.026999887453507492,0.6160719410657374,0.4177530449394926,0.8357329510994962,-0.34243004895898427,0.5303200921043754,0.5492121395654976,-0.605114237871021,0.877209173515439,0.9753286321647465,0.37879905942827463,-0.9777941410429776,-0.6020483672618866,-2.0203700355632526,-1.173490555185603,0.59435515707257,0.9159892357682243,0.5278348224642977,-0.8575993880185384,0.48929712243821727,0.882294949144125,-0.8393594152294099,-0.6114728655666113,0.046958647668361664,-0.6363846873864532,0.7513101855292916,0.7097636624239385,0.2258746586740017,-0.2630863096565008,-1.9022803194331888,0.5049020628386448,1.4541280550764395,0.2175355268195044,0.2973353305834323,-0.31273161542580585,-0.8723139920974634,-0.8371311509981751,-0.9272937709465623,-0.30272415233775973,0.7192377294413745,0.5078041953966022,0.7821153486147523,0.7588161821477115,0.4570906711742282,0.3075354965403676],"bias":0.7215480790852004},{"weights":[0.9924885070818852,-0.3313243886801292,-0.7205897892811403,0.5260731066136395,-0.13454787266658816,0.4392051583199686,-0.9044849214973107,-0.14565820005762198,0.08356638066470623,-0.2221786268055439,-0.9406127785332501,-0.034641898702830076,-0.047141711227595806,-0.842759717721492,0.05707669723778963,-0.023033258505165577,-0.23318309199420753,-0.09749058673651968,0.34934350195398245,-0.8172586327605187,-0.7511336804596384,-0.5283392086421631,-0.10325439261932613,0.5853275910886122,0.5984994656019291,0.7775541450828314,0.24834943655878305,0.7262766975909472,-0.2370171332731843,-0.17649524891749024,0.6684207958169281,0.4063638290390372,-0.44467338509985865,0.607065861867546,0.21256992308644496,-0.6803015894406742,0.2792897540829758,-0.849003249881302,0.04425566617775939,0.885250564844921,-0.7058927694459457,-0.5425960146822035,-0.03603964205831289,-0.6980648329481483,0.7097280290909111,-0.7231089384295046,-0.2752881711348891,-0.5660789282992482,0.18896890461194538,-0.6098412647174553,0.15413653229027668,0.5508249842954289,-0.5987761237202095,-0.7766383372135418,0.154196469191863,-0.4039625581353903,-0.6527436841279268,-0.2970807100646198,0.5876554283313453,0.4594988008029759,-0.27121942723169923,0.9401019485667348,-0.904804140329361,-0.2928213607519865,-0.8080055792034486,-0.9133567860742778,-1.0980623114422985,-0.842997920522677,0.7442533782007662,0.6907374647094258,-0.11775905747374087,-0.8910099640488625,0.13067162595689297,0.5729062068276107,0.26490561570972204,-0.5540987723506987,0.7867745482362807,0.6521593793295324,-0.6022537108510733,0.6273371279239655,-0.4859841982459565,0.3781313985537496,0.07001044668410922,-0.7438563715378415,-0.24139800201362815,-0.06775029648319394,0.3752280781361537,-0.43982143067187224,0.43068727292120457,0.038428608793765306,0.13560486119240522,-0.03384357923641801,-0.8947785296477377,-0.08470474509522319,-0.4149159421212971,0.29843973321840167,-0.3180740782573386,0.11443442186167693,-0.708290743426279,0.20315431501639528,-0.9895705422681101,-0.07058198092940206,-0.36885714893405075,0.115643605662502,0.990788877941668,-0.8617181302979589,0.6486084912903607,-0.8826902392320335,0.5451067495159805,-0.7249442236497998,0.6655064099468291,-0.01654655672609806,0.4624412439486367,0.2220721775219691,0.6338203033174278,0.6633972201709653,0.13964153457308015,0.7962148750981031,-0.13020699390589385,0.22602395051833243,0.498370791785419,0.624547662679106,-0.091252775862813,-0.29675599513575435,0.2444758010096848,0.5512631200253963,0.18179308529943228,0.6081812009215355,0.6045866997780949,-1.202952964161262,-0.3877338979023438,-0.24436076045561675,0.4719120270599789,0.859950367477369,0.1969118076280763,-0.7555789953743545,0.341851897072047,0.21673859423026443,-0.8836634121835232,0.8189046760089695,-0.5945186424069107,-0.11810514656826854,-0.8362661837600172,-0.7630323809571564,-0.9782150133155056,0.510272246783704,1.1169711143094299,0.24548331949184626,0.3721336889283202,0.8431402642422618,-0.648454349170083,-0.5074816344110161,-0.18670358303892037,0.7517931237816811,-0.3632236635312438,0.07124897371977568,-0.583467276301235,0.8601638837717474,-0.5983738638460636,0.5640237019397318,-0.37483008539147084,1.0952900695527876,-0.5714711648255648,-0.08707314381631007,0.032455220693875485,-0.8044174614098144,-0.8979923018565356,-0.6418669209257604,0.20588136298174126,0.7834529774263501,0.8849912020377815,-0.33352134842425585,0.033804434817284346,0.29012833815068007,-0.21081734215840697,-0.1974867437966168,-0.2014914900214762,-0.8508289330206577,-0.43289868738646475,0.512860332044648,-0.6145008787463969,-0.7310160419416555,-0.46489651638086366,0.5491641513071954,0.5697145047597587,-0.8440717374905944,0.5668142857030034,0.500603849068284,0.8854396441020072,-0.15785786462947726,-0.831069097854197,0.7654562680982053,0.4759994447494034,0.6086459962120676,-0.7425610995389245,-1.000659684469185,0.15895259592312425,0.7892997246800167,0.5088732576470653,0.6114707998931408,-0.13467694772407413,0.7195754987187684,-0.8431757395155728,0.5647671283222735,-0.3647111216560006,-0.39134629629552364,-0.99952357634902,-0.5790433376096189,0.33198573989435765,1.173312482441357,-0.35160739012069325,-0.8529932965812667,-1.0262409942411113,-0.9104634546161301,0.9051593031321108,-0.7645301711478544,0.9852281510829926,0.20110293896868825,-0.9756342242471874,0.4155530775897205,0.9646976934745908,0.7710746079683304,-0.2994610629975796,0.06128269340842962,-0.03974912545739332,0.7831572840874247,0.7631384902550437,-0.7242656058370702,-0.9819080895937383,0.2917223017706398,-0.7365017991734895,0.7346573490649462,0.8086206237785518,0.422517170663923,-0.5413158470764756,-0.6226518866606057,0.1938184122554958,-0.3731887396425009,0.5421193963848054,-0.5075053195469081,-1.317617816368101,0.4026331694102039,-0.39561256292597025,0.8545240151585997,0.8460643588670244,0.47120127667865136,-0.4723459432072926,-0.9292065883055329,-0.8666830440051854,0.4325719252228737,0.02409569639712572,-0.4728841125033796,0.8877148418687284,0.2914789402857423,0.7845332976430655,0.16761773126199841],"bias":-0.2559533919178691},{"weights":[0.4939412962301993,0.3720825907851503,0.49290904903043914,0.17021061994351738,0.34036193458652503,-0.038521850702787346,0.5528769349257574,-0.8641719687327816,0.4233313575387001,-0.6845607301220298,0.5888519822619855,-0.18806308368220925,0.3577149137854576,0.4918686090968549,-0.5383960432372987,-0.3315685768611729,1.2225437635078154,0.3115901689196746,0.21286337865799407,0.20815564236988593,0.17636226406790811,-0.04963739215425062,0.19605582179282144,0.4913031071920227,-0.7239571869544831,-0.8036924181506038,0.15313337463885546,-0.4323797170072794,-0.9190279012545943,0.9214907116256654,-0.7245130846276879,0.47230241261422634,0.867848848451235,0.5727975859365779,0.46121633981098,0.20842222714071376,0.45477589709555627,0.507291613320392,0.50845841102336,0.32876048180608314,0.45181658516835,0.3056955668143928,-0.9220699570141733,0.10135051980614662,0.3416899871081114,-0.30029243137687445,-0.9131086869165301,-0.29716911679133773,1.5051335058677948,-0.03525364448999585,0.0854961569126833,-0.16684220063355154,0.31606541302569746,0.6279218598310683,0.5706750057104055,0.32700905995443463,-0.8182641537860036,-0.0037463041953742504,-0.6285264207981527,0.6971833510324359,-0.8492873650975525,0.51220792112872,0.134225782006979,-0.663937040604651,2.4714500223882134,0.401352132393579,-0.21990135474177241,0.8846075949144339,0.8717719413775064,-0.16937721972868522,-0.6261597152012788,0.7957940218038857,0.8606003671884537,0.034557302948087454,0.3744358071126044,0.08022578991949558,-0.612347383517772,0.34321621619164944,-0.9850301798433065,0.9831939432770014,0.44424554717733183,0.12531229114214465,-0.23827355563252248,-0.12731435260878685,-0.09968231650667617,-0.06877097529610326,0.15628177058310835,-0.5532508488545831,0.3556212675757706,0.41337226098403335,0.26449238089844584,-0.3012323444709182,0.008470803964883089,-0.3935036398470402,0.03666561469435692,-0.004606322385370731,0.5452034592501713,0.32913696018517025,0.12437584208296121,0.0023707831319706137,0.21073317531553673,-0.14544054125008854,0.2658941037865972,0.3437777413036013,0.006122909020632505,-0.5326451621949673,-0.4713559686206281,0.24613258196040988,0.7659725053235888,-0.3858896056190133,-0.19693357357755303,-0.027946397196501493,0.4004618489242571,-0.26510209386374256,-0.19643855929135365,0.13865124562057415,-0.24014390535172686,-0.969060560655785,0.9703313338591499,-0.42106740577428275,-0.4449390498921275,0.7654281188733876,-0.4801849601790309,-0.413777066860348,0.5482461233623326,-0.4722807756625116,0.03653590567409992,-0.22719361167401075,3.094122272783824,-0.8396512279965128,0.48982965386519145,0.023310354314965386,-0.5461129867731539,0.4581846635435373,-0.7257150771358465,-0.9383230214496365,0.4183407435193658,-0.40523848170414567,0.8603687956929207,-0.6977119371294975,-0.4408655036240816,-0.11756972409784794,-0.8898297068662941,-0.4199364325031638,0.13434584646746117,-0.2650792729909664,0.01929336583991979,-0.08552890687432427,-0.19797096601254938,-0.22990337976927894,0.1611315610096953,0.34556551049268186,0.14363024337081517,-0.832506800070405,0.9837302733212709,-0.7777950158342719,-0.2155159143730998,0.7729818564839661,0.04046346805989742,0.545074949041009,1.2167960011336099,0.22793128697592666,-0.25232678097516414,-0.024568361869662082,-0.3825968245138122,-0.43581042341684767,0.5342998248014845,-0.8571684253758082,-0.5487215912268765,-0.20448373910039663,0.01920679584145546,-0.6852588187903166,-0.17765638837590814,-0.3637311081402004,-0.9881873801350594,0.1148107466287911,2.5274016575912794,-0.5037614927541246,-0.10557467126372981,0.0950920201660115,0.1501190849345706,-0.7472005625648699,0.8127923857931303,-0.03785332478582859,0.6609972114674747,0.7381358086131513,-0.0832644640468061,-0.1047546686604619,0.30598769104108214,-0.1283294102177024,-0.91622423985973,-0.3735221060924232,3.3202286118989583,-0.25550578188520723,-0.7266647733638729,-0.38004280528206347,0.7685105805449634,-0.09341383550200001,0.6187082403031717,-0.24402620550245047,-0.7421886525116861,-0.9828714053146541,-0.24894917849451303,0.21260149218142033,0.12227455107495189,-0.4372575241141021,-0.9646079908125103,0.8736345921643078,1.9560778429302894,0.8171757147716439,-0.07285061847235834,0.14501298832519766,0.09361605538083889,-0.36512483318612066,0.43173678970302387,-0.009432053242761302,0.7702438668347895,0.5777667625807226,0.4779760595411062,-0.8333909031935036,-0.877257062587887,0.07868041284382343,-0.46831516921520233,-0.562493625562638,1.9518591746020983,0.6540178848824141,-0.6565570564440736,-1.1318128932953715,-1.0395985929574323,-0.09291570484235062,-0.3622775897715842,-0.44644139241427183,-0.1561006512492895,0.16571380756795406,0.9915713225491345,0.9064507992006838,0.5367934163659811,-0.4460151018574834,-0.7671405114233494,-0.5779198613017797,3.287106530354073,-0.2198065164379635,-0.43225922017913143,0.07320140340952166,-0.555593062484157,0.05356416042843407,-0.27510299935421556,0.019690563436597586,0.09928710060194135,-0.8149762991815805,0.8084394535981119,0.694817881565541,0.627950013615191,-0.9614713499322534,-0.15940962871536613,0.5989823439158499],"bias":0.5603374748391561},{"weights":[-0.9975191874591697,-0.13685209377045882,0.1784333693934429,0.002623785336174129,0.059097823932503374,-0.3304190735392375,-0.48508068050296815,-0.3659623057865169,0.5829495755024254,-0.30724746407940984,-0.2996193110011518,-0.9865359123796225,-0.1550179929472506,-0.17450902983546257,0.45605348283424973,-0.6571333059109747,-0.4958527763740855,-0.4877641232622008,0.13415374931297822,-0.041181181423298165,0.08339575854906647,-0.2995395329499308,-0.08123902173235625,-0.0010654646585839297,-0.4574623346883633,-0.19968586647883058,0.40015745582059026,-0.13872672989964485,0.03085225960239768,0.9712011781521142,-0.1353689730167389,0.7134484043344855,1.1383508726901617,0.04916536844643212,0.11436849437968119,0.1313640208086049,0.1198235489838859,-0.05686274205291779,0.45186914818978474,-0.2868169499784399,-0.6860634282006851,0.6110601061955094,0.3570006019435823,0.05639225151389837,-0.3482842515222728,-0.5064294068142772,0.08037074562162161,-0.10351994633674622,1.2072643737740802,-0.24063760395161984,-0.4808356453945876,-0.3903898727242337,-0.4165775162875299,-0.48818377150332803,-0.5715459310036761,0.09092183224856853,0.2506559221073985,0.3549911826848984,-0.3580889576114714,0.9512693611904979,0.4562032911926508,0.4037674400024116,0.9691111058928072,0.0012242239899933338,-1.6696188389543134,0.611934313014478,0.6704324065773433,0.7243473375039607,0.7931857493604576,0.7398741476814746,-0.2985708577713129,0.9681256269104779,0.15855435328558087,-0.0036524198949337006,-0.7091026254929602,0.08491544285789132,-0.17471763864159584,0.6704190378077328,0.7221558103337884,-0.40220775036141276,-0.5417998031776262,-0.41351293621104546,-0.25264902206221274,-0.3168424018306408,0.3197240705190163,0.05163251472263391,0.1257708661181143,0.3900907503110629,-0.47036046208813787,0.6561709921807051,-0.3175036204047501,0.842605983838439,-0.9085502452217042,0.0018245265819132328,-0.5111631923355162,0.8907197527587414,1.0993885460430755,0.450017518297477,0.21907808021156033,-0.1292197844333536,0.030209771948337478,0.49542169337153774,0.6042275600974447,-0.12251287767963534,-0.10397048247978091,0.5465880888514221,-0.09955342905595899,0.01868484355509281,-0.010328974574804306,0.7516286126337945,0.934569152072072,-0.7656108383089304,0.38274081566139534,-0.39167008940446496,-0.24436514892246702,-0.3495275792886594,-0.9540552147090755,-0.8573521665836246,0.3763333877265843,-0.8969744704890911,-0.4760014386847615,0.5215238104574382,0.057658014353364706,0.8067267714068294,0.12191663589328527,-0.8765993262641132,-0.10362547123804688,0.4463067874312401,-2.4789649851598456,0.7226176221014383,1.0081567166271,0.2930553512397452,-0.09534621577322511,-0.1364576583544261,-0.9189273706231486,0.14044339705408174,-0.7384246550500393,-0.6494942237623036,0.48574222391471267,0.5878760786727071,0.5264596031047404,-0.5120673659257591,0.5281255049631,0.89784050360322,-0.7287481792155099,-0.07788484464797929,0.356547720680361,0.623066092366954,0.33451974879329505,-0.16228929345113044,-0.32431016660296014,0.9520552307519328,0.25366179605422207,0.5970267518423498,-0.4730233238078654,0.2941872817464173,0.8305706698447466,0.468336287420243,-0.6371282879263163,-0.33832008112221956,1.2436366472194433,-0.019768948101173106,-0.22685467975663498,0.1183201251889542,-0.24068615206271216,-0.28450308021096676,0.3961505395540758,0.28833769442723683,-0.28979704578314064,0.1733535984531045,0.5134134013205767,-0.1253909496590495,0.5133608132600784,0.6919816695153713,-0.6247934969142079,0.016887215431779623,0.7734429499384697,-0.8398938001227874,-0.736988983698885,-0.2952691695161964,0.19610100065907926,0.14312886584534906,-0.018724087753433784,0.17815978778526187,0.974618467502296,-0.4688662951812148,-0.22017934499308467,-0.7772733247838914,0.807196422945708,0.6959201572462916,0.43595045851543546,-0.47025566454976797,-3.034530211862579,1.5803083842156387,1.8310213452267843,1.139487171398018,0.9870264748283163,-0.35112633349720096,0.3886979337396019,-0.8504675477743149,0.9600671273656189,0.7875341693870723,0.27426979411393404,0.4261709046550095,0.7893029074184597,0.040833319537341595,-0.2974053150974214,0.7259278548881412,-0.6645827531390718,-0.2962483983297608,0.11219779007308693,0.4818173493897759,0.9517474901786218,-0.17490780797903252,0.03192203066644383,0.5389283380218682,-0.23564553167670965,0.5361383585259318,-0.31510424707084894,-0.2723174784332514,0.9186619743704796,0.28184603434056044,0.9197545852512121,0.24265947425737977,1.1312841475215294,0.41484270225575853,-0.062106155565489624,0.3984546161232284,0.3679342477486479,0.3837902490934258,0.41966270458376637,0.46107456972822547,0.29065877525135875,-0.18910451559349895,-0.43219985952600837,0.2882210253737867,-0.45340402191504836,0.008332493714988232,-0.636292431037873,0.3913847245275974,0.8723503446568524,-0.6181071106707351,-0.6346605888357418,-0.224326355011523,0.6705435191697969,0.03479529767135888,0.04654708594935557,0.5184995671734214,-0.2715835850685835,0.3535465453751385,-0.36265957821160555,0.41608676966279745,-0.9624674250371754,-0.3753447546623647,-0.8424491845071316,-0.5308979973196983],"bias":0.798819999325407},{"weights":[-0.5032820304342774,-0.0016368451454745207,-1.0087825169599653,0.15523508230362967,-0.6746276879556737,0.8888783889135171,0.34390536998326593,-0.7822655185306518,-0.8623634432442486,0.6028392734006047,-0.2307560802437365,0.5870837369002402,0.023343838285654783,-0.18617257429286838,0.31650639651343226,-0.3207157589495182,0.0025521604644111314,-0.2628655840682532,-0.8268307819300246,-0.6295451943782745,-0.04020461727163932,-0.24760521913553415,0.10443467187730687,0.9814882691368988,0.22901571260597275,0.6949047083035111,0.11768086347728968,-0.8393563623540103,-0.8218206218443811,-0.701768318656832,-0.08452246617525816,0.9395905779674649,-0.5189612152318774,-0.048238417844499636,0.5421250562071928,0.5183717567103161,0.7646477152894818,0.6261619845094074,-0.022198695466401124,-0.7913229809005115,-0.11810505039594328,-0.9085052120499313,0.8392309625633061,-0.14690433908253908,0.6894820816814899,0.07453198591247201,-0.8688177564181387,0.19248080579563975,-1.0728558434948494,-0.5975963655843037,-0.07367090097560966,0.292354887279299,0.5058122530329144,-0.7407813515733341,0.49254415526308115,-0.033170766197144985,-0.691208687145263,0.5127171077765524,0.9814169136807323,0.32489220472052693,-0.6857233606278896,-0.3470362941734493,-0.15107026137411594,0.9813398262485862,0.19311950080800744,0.44283004657979524,0.7675156059337449,0.6158222180719682,0.9687624691299329,-0.16718474297949384,0.10232419062344794,0.10321138240396976,0.1757992124184966,0.639456007629633,0.33318329183384776,0.33304109051823616,0.04786440497264266,0.1304145767353475,0.42933759093284607,-0.026174056343734264,-1.0313851832748504,-0.15282048149832989,0.2705136059918202,0.45095062626079535,0.12922545283869274,0.07036409723556242,0.5982746920861503,-0.49724803512223276,-0.6853007939644158,-0.8899588026106358,0.6727197645232081,-0.2072334662079811,0.8351327856071293,0.31494265189394355,-0.10158296721056104,-0.36035033501684666,-0.2081061586605941,-0.8070935807959687,-0.6041831949004006,-0.6558654076744495,-0.6543333534797766,-0.4019664959037847,0.38426259293985554,0.8569279196949033,-0.26175754703581333,-0.3789117424748838,0.9732002541422844,-0.48302658135071397,0.4718040940351784,-0.2720884718000889,-0.4630107553675771,-0.9186350931413472,-0.2918521373473693,0.10599727994428364,0.4023152333671908,-0.3462240057366172,0.3918399537328803,0.663952531913498,-0.5871685508178272,-0.9941092104259313,-0.3327291812747717,-0.1768438066355884,0.5895312828943133,0.05671358993276954,-0.231776034925133,0.27917514694854617,0.7330843196250498,0.4731919034384191,0.6422133628502118,0.3456446091431664,0.12131116714117246,0.32286602985900276,0.6705003186167966,0.5308521518281447,0.24437348094814612,0.018238821284745937,-0.6520464848726988,0.4706602143123746,0.7725952956825495,-0.9237712658941746,-0.5831799670122564,0.08872917806729674,0.6389022567309439,0.40505195828154683,-0.08965036587471917,0.6876163488050429,0.18779198108554626,0.10468879286673735,-0.6371082709882697,0.18752054071531923,0.007662947947552673,-0.6001449198188455,0.8732195081930662,-0.4280456267297268,-0.5881335302256048,-0.9124751323834062,-0.8214886975474656,-0.6693397965282202,0.8121103220619261,-0.68706932105124,-0.6456751875660758,0.20934581936959662,0.361405438070978,-0.16672635989180865,0.8930425273275551,-0.6172728810216267,0.5244307994633433,-0.22857321586815757,-0.17156991794206974,-0.0157958772033453,0.20839754957705736,0.254418823402375,0.06585549656301737,0.1953927525319159,-0.12193389562889934,0.6020745565183461,-0.1593791369952838,0.19082278783515358,0.4587432513912352,-0.8774888166570648,-0.5957870325700146,0.2876171050886878,-0.2624463469308751,-0.22101206658408046,-0.12623268505558372,0.9048029016703367,0.5167281562462449,0.051117447670549154,-0.9442441933788359,0.5629533482715487,0.5935725928284228,-0.5589172127656639,-0.18959530299264438,-0.7909616676155989,0.626509182299762,-0.3485610273144615,0.7926809989090581,-0.31530879929941263,-0.6694599673302584,-0.1251496491022408,0.5955615718849003,-0.9831364895217121,-0.833006739616394,-0.1262200754135847,-0.7133352793753147,-0.43104199320077896,-0.9471765495836735,-0.9422203400172293,0.4498752804258536,-0.6937489945005525,-0.6785561426079841,-0.6537085767177138,0.10011781167251588,0.28542212261438654,0.6674275394742878,-0.11494673216626364,0.062307511921972036,0.2787900911644101,-0.33903946122154593,0.2750489115715027,-0.12797585083171725,-0.3219548366032541,0.2930114255286753,-0.03667457960546017,-0.36975010721924634,-0.8233335446147245,-0.03200126253187891,0.2704798923523012,-0.044490349085706746,-0.18987876361902617,-0.15450760882780268,0.5184684144333005,-0.8620052025653422,-0.9836668418720365,-0.5879409457556903,0.23607002245262265,-0.8426293153315783,0.33593531837686896,-0.5538150351494551,-0.24158901255577803,0.5067066061258219,0.5147927082263055,0.8477879908468624,0.09481885031421931,-0.3067111573913917,-0.9461290458166471,0.6812929918029083,0.2670637536793947,0.5426011420786381,-0.0778571986593306,-0.7675130073912442,0.9205908542498946,0.8102315436117351,-0.36404372239485383,-0.21871426794677973,-0.33728562109172344],"bias":-0.05951042783061913},{"weights":[1.425223000868027,0.22219519619114614,-0.7662497278345739,-0.04551027255682438,-0.19664758870350496,0.6759717780513442,0.27770947683255853,0.2530254224211058,-0.06352391839027405,-0.23839391255751252,0.8457888504490256,0.3373412871733308,-0.778640512842685,0.20015890803188086,-0.5180692533031106,0.04264937108382583,-0.2685454654606283,0.08475088208600064,-0.35332000252777823,0.0358372071900163,-0.24143190028307224,-0.1341312921949891,-0.6035175898151931,-0.04185710640162812,0.6816391094773032,0.4165445691905916,-0.40052823536098003,-0.4043893488124013,-0.5086522600613534,-0.10201881360262632,-0.2901645968668163,-0.9083962789736688,-0.04335380617611141,0.08853048228717514,0.17796653267993723,-0.070965266109638,-0.26215926397103045,0.060210434825306726,0.07766671103544377,0.4556912638376894,0.2268366144061846,0.24083664547652006,-0.773938690777868,0.9093264825642109,-0.2271150378510356,0.1490172785706818,-0.555072742048651,-0.8525307807140052,-0.8487877859538135,0.4409839659096806,0.12847599236156945,0.4325531165596921,-0.04792936156702588,-0.9501108634303443,0.8877991167135165,-0.15368811460211873,0.0005487184971570969,0.5867684171535075,0.584648204036057,0.2296981830149889,0.48148897709324956,0.3475256273522973,0.8986188508570194,0.9500082097947598,0.6140928406512366,-0.7445814284963412,-0.056755768592431644,-0.36474366115840406,0.142154148267566,0.8037656625340497,0.7223563858355515,0.19728747149929404,0.19147046515718102,-0.5154523449018598,-0.6397864436730742,-0.479166675824672,-0.6427253563888371,0.7085340330377221,-0.1669079759158194,-0.29864299250766635,0.5755211386302646,-0.02492039079745532,0.7708859846132813,0.18988020880890794,0.05211271810796806,0.005045503833863608,-0.6893224696499402,0.8264119272479946,0.06621676031500101,0.9765431759878993,0.16495770635083318,-0.45262597082182765,0.2804635842330754,-0.217926403041929,-0.4041856909170747,-0.6067817225120962,-0.13721169390976454,-0.007459052781135103,0.22655532281904228,-0.05176023462935536,-0.03829001993282219,0.30426658882933855,0.4453328948855948,0.14184304095412759,0.46683137444779277,0.22524619894102216,0.11522576957941055,0.46264285780489445,0.2726799715310335,-0.27528795413672924,-0.2921263580210507,-0.17092863330617547,-1.264439842622775,-0.13747731061641433,-0.16230456715545563,-0.35374945517801315,-0.6688242588228273,-0.023021170009160048,0.07419606698608809,0.14667329452282424,-0.0989378821104765,-0.5421869903802872,-0.7228468209505081,-0.21784479264169931,0.9704832076095045,0.5906495442613959,0.7309500342234969,0.04263393534347415,1.7278389949397626,-0.7940176958042183,-0.9238943267680367,-0.7719938801435008,0.14363170755265328,0.792731262604839,0.056624452026251784,0.8957765024473587,-0.3799938401207328,0.03593907877802849,0.7935527381487191,0.9659644509665668,-0.5654161726124585,0.8436079490929842,-0.819099310785532,0.7318982575088739,0.6680858291387242,0.4153270412577939,-0.06070926247316766,0.011541500854785421,-0.3295335468441138,-0.46504177662944646,-0.12651087891413915,-0.19334008783571605,0.26703537580453907,0.10690778214484453,0.814861030317843,-0.9526163530535996,-0.5407344019040465,-0.5465976293198764,-0.07781932037323713,0.03330715000629425,-1.027874000662798,-0.46680210096808655,0.23783366885844806,0.4237712142347665,0.4546440695410803,0.7018390151472372,-0.621545998584335,0.6741196861236837,-0.8345471124568783,0.12845002533867955,0.9721341752447188,0.39845488453283906,-0.629329530056566,0.5018243272788823,0.5656582401134074,-0.037960220128297806,-0.5304390784000953,-0.3209345060394344,-0.2921690839559761,-0.05919572729022662,-0.538706731597725,0.8538644330703938,-0.19272899392537451,-0.106698177754879,-0.9386161905713379,-0.2377950926311314,-0.940570998005569,0.5112900165840983,-0.9480753750540316,-0.6397044165059924,-0.9475010884925723,-0.5019356277771294,3.0393594242987243,-1.0306410368000398,-0.7828695700497035,0.12947680547665494,-1.0627175305797276,-0.7762974745255928,0.09550797142500483,-0.2547705424949527,-0.5778369409963489,0.5633580102585256,0.39761473471298814,0.4019481926225126,0.48931089229881763,-0.7457000697031617,-0.057775750290602446,0.93067971104756,-0.5776969321717744,-0.4656077110294062,-0.5120085474395727,-0.8123203875634497,-0.8317289868488679,-0.09942837840041253,0.1454034121497989,0.2677992564758614,-0.7156380591914058,-0.13766239350661635,0.9819831317290664,0.050151420291513205,-0.4236596133559942,0.41898321406915784,-0.7072368622757494,-0.23466839082539082,-0.6183445805214417,-0.14884938865604594,0.29638334793157495,0.56662522043514,0.1606424267156947,-0.9262763398291688,0.593136322551233,0.6781313475221395,0.1419007177464664,-0.5100485989823937,0.7376317200250924,0.2406211569905281,-0.49340266129001975,-0.808570550289005,0.19406850542873144,-0.02248637843877077,-1.4789425724830847,0.1287561554587911,0.5708645498062199,0.6865705269299166,-0.15676535156698573,-0.6728955089279497,-0.8424013923648226,-0.26401909440755844,0.43663102807477117,-0.629254334140569,-0.3872344442643225,-0.7910093916580081,-0.8431357094086707,-0.7503401031717658,-0.05963057791814208,-0.08450489863753319],"bias":-1.0456520584659945},{"weights":[-0.9297204123308186,0.769032292140183,-0.8860216131356486,-0.39776909925798687,0.41786526079159764,-0.2994397901531471,-0.6314547736509943,-0.5706078524759328,-0.2978960364125669,-0.2604769584722817,0.41338504711166024,0.09499605698511004,-0.2893944405950606,-0.5481699197553098,-0.62072664918378,-0.5932214446365833,-0.8917455795608715,-0.4860401078711636,-0.42438055667339925,0.613163253729139,0.6501963651122851,0.3770538389449284,0.1217962447088839,-0.44391631098172757,-0.32623553368324015,0.5458793030120432,-0.8148873788304627,0.581971338018775,-0.026121551170945168,0.4367040083743632,0.5366705171763897,-0.7762126019224524,0.289019399280619,0.6462251980692416,-0.26790985679761414,-0.8488501695756047,0.5056230874635551,0.6274295328065217,-0.767633903027647,0.935750437413275,0.9284227537683564,-0.26577838649973273,-0.994415573310107,-0.6557887671515346,-0.9324914570897818,0.20776084018871188,0.4473499245941639,0.6319292085245252,-0.8298945105130301,-0.7711416590705975,-0.9329194543046344,-0.608354986591403,-0.10208969098111746,-0.29821746213611255,0.028999832833683643,0.7016470655798912,-0.33156680734828115,-0.8018115358427167,0.3900956963188946,0.11909650359302759,0.38744168216362596,0.5022727800533175,-0.9011358139105141,-0.38545903423801064,-1.1041913028772234,0.1390260858409987,-0.48841915164414473,-0.6746681127719347,0.3409026613222702,0.15143498692747823,0.5048808325964795,0.8347677174024284,-0.10545768635347486,-0.09677488217130303,-0.08958858018741012,-0.23247507493942976,-0.41638833517208695,-0.7035531373694539,-0.43665306409820914,-0.18716852832585573,-0.02492686427759413,-0.6013653321630817,-0.1275651540319758,0.6625065477385345,-0.6966683419754927,-0.9111025734438489,-0.1726228823365882,0.19905635302471317,0.9922481728717685,-0.9760045479051769,0.030420904513448477,-0.96238012611866,-0.8307521878741682,0.04643296776339412,-0.05067204777151346,-0.6473421831615269,-0.8007709282537081,-0.1740896094868637,0.6662692450075259,0.7505083928015648,0.17174026393620798,0.4118177721268789,-0.5375963836896485,-0.6739833563143993,-0.45985817490145564,-0.35735540091991425,-0.06732420064508915,0.8149265386164188,0.09991043480113149,0.4084225515834987,-0.9434236632660031,0.9672634731978178,0.7509159048611944,0.027565301758990704,-0.42911129201989107,0.18226501465314626,0.6166278046170781,0.04524406242746223,0.01650954805580291,0.12823408844598294,-0.7325231479480863,-0.45678515918552876,-0.7979783834889531,-0.8653849586844444,0.12864294555038214,0.2646477119997144,0.3715923666022718,0.9719481938518584,-1.0573689824672994,-0.43807813054061884,0.6480400202221414,0.42618273006512464,0.699700779459392,0.9305186242066569,0.19926727356288929,0.9773785592360724,0.7790162023156881,0.7686283197253942,-0.36909347819164395,0.4313624738715589,0.15173269575461745,0.5967184249311686,0.0018335776403546333,0.45319999754428864,0.06260649529484903,0.37336719727879536,0.36350253805620397,-0.48103017336213844,-0.45930341346251585,0.9220915877850039,-0.20350221726932644,0.07380219963114175,-0.21178888446094948,0.8172818031162024,0.4314666851423681,0.6790348012000322,0.05434319516643882,0.8747681868262589,-0.8617894975468516,0.9659862066619098,-0.5241163272018187,0.278768890529643,-0.648827115621297,0.6877502036188495,-0.48057337120044763,0.799445310275022,0.6137620065276107,-0.913792607029063,0.3059592830026613,-0.6815031059086323,-0.4195530195720494,0.4990179995074868,0.002028311137109995,-0.2722789151594043,-0.443873293697834,0.07673141034319997,0.6923107507852103,-0.5652645659821153,-0.43192492124589515,-0.5484359167942446,0.8475507551202277,-0.6831736363009613,-0.39720190641375774,0.49296119855716825,-0.9368608533404768,-0.7096073934808373,0.474237821996212,-0.8660903982818127,-0.7269074278883636,0.5122017092071474,-0.3823465066961944,-0.43985463166609406,-0.5270505722001608,0.17662108146153732,0.7508087018891438,0.7902525172339585,0.6374326091639558,-0.2977633106549262,-0.7662224515364491,-0.28246689727529883,0.1142429574392736,0.715534879360348,0.044449747540056705,0.609651773236692,-0.7293258463032544,-0.5501160654239357,0.04342582309618592,-0.4464146140962839,-0.3174018792543638,-0.7397972987521598,-0.24389341426021743,-0.17947907418956968,0.5247656938083114,-1.0054133486186239,0.5218535072780169,0.8364814237678296,-0.6303512193262577,-0.08922637114301324,0.22351786075159907,-0.8507519587874413,-0.02920800494030118,-0.08113027457147837,0.20035771513357759,-0.47455210518091917,0.4754803908276371,-0.729377761954853,-0.10993055207093157,-0.5991321105245112,0.009765552657066558,-0.6309101093740079,-0.6447632922524555,0.9429727038368583,0.7120950650423765,0.09624330094084144,0.3523182272911072,-0.8209661655128002,-0.967410184442997,0.14673311030492187,0.5240937978960574,0.4484705268405378,-1.14272804819676,-0.2681827892786376,0.1902289880180843,-0.8959433382115789,0.3057151663743819,-0.7325284482895771,-0.106591075895168,-0.8943594424054027,-0.4014592682942748,0.177754620090127,-0.28456236561760306,0.4112252527847886,-0.4278735821135342,0.5863187359645963,0.2133046886883676,-0.9926114100962877],"bias":-1.1047351787023045},{"weights":[0.44139528067640316,0.5370520870948727,0.579447594810448,-0.3351675394999238,-0.46191681956651315,0.6569678575978969,-0.5148666140701926,-0.31966355322689677,0.24454534146934748,0.19863155158236623,0.25182714173570275,-0.7065650206059217,-0.17554109869524837,-0.4035799205303192,0.40949318185448647,0.17615965008735657,-0.7132914041057489,-0.40048059327804025,0.6096386787863083,-0.09899560564455645,0.7999739330454232,-0.5247880424059054,-0.4155713085067912,0.5111035606893067,-0.6348697038309933,0.9516692026518285,-0.46691945288330317,0.4381193798035383,0.2762868544086814,0.6453443798236549,0.5555978966876864,0.42499041417613626,0.007423286432165527,-0.4595918234135218,0.006308618233165438,-0.3093972922806135,-0.8898572929416637,0.014091744523993088,-0.16343462449677196,0.7781912831341713,-0.9733500014067676,-0.42280144337564707,-0.4552982277236879,-0.30163938645273447,0.1072015599347651,-0.39331712620332837,-0.63478879397735,-0.20753360353410244,1.1186611798970758,-0.23281351098953032,0.3615912302737278,-0.12168211042025384,-0.10873786236492312,0.890673174692512,-0.8827039458847449,-0.7802576762624085,0.7023200560361147,-0.45208682445809245,0.33247078163549304,-0.622567190323025,0.08491018274798989,-0.15093722939491272,-0.14866573829203844,0.5036053261719644,-0.8928130805955953,0.3735131692923392,0.559476181268755,0.10476774489831703,-0.03453528591916093,-0.09919056028828743,-0.9718007608578009,-0.12864389596506953,-0.7636748775839806,-0.31442242907360196,0.02540770685300231,0.981596780475229,0.942005920689553,-0.44574792915955186,0.29642941849306226,-0.4447360294871032,0.2703399314700194,-0.2742059258860865,-0.6655838218577697,0.12342654318788206,0.7101929005972736,-0.03522127409772118,0.929852148250321,-0.1828016103820327,-0.03796461224555969,0.1904885726980865,-0.7378512392751873,-0.18015750218182802,0.5027867979370058,0.2966581368818879,-0.33217906672507524,0.08213180769234896,-0.03598276872844406,0.22871163958755486,-0.9415385038681715,-0.12423019233747108,-0.08726591562536984,0.7776136214556965,-0.59726164691131,0.2872751351879307,-0.8031272529624403,0.9071015571244061,-0.40208327723667026,-0.3312907302752137,-0.15338016720488667,-0.2817337433807552,-0.5082947541959584,0.5345232635736465,0.4440205417242069,-0.8752270255300317,-0.6315750024961241,0.5016073997067303,0.8369153029092249,-0.4661520715124933,-0.8505189564898971,-0.9022715613197081,0.7732352907769382,0.2528612925671041,0.15941089252009988,-0.7939381776377559,0.48500056425109506,-0.6574162058532238,-0.23799784295260906,-0.16458755871281028,-0.7093500942905744,-0.9034012524019571,-0.7125021761486405,-0.9325899232064967,0.13405156293096168,-0.4782107758952575,0.4323479871102312,-0.6114846857219256,-0.1758705833926797,0.12117889383807778,-0.3524993038736284,-0.4206221541389823,-0.668582537677139,0.12797607714310288,0.21368173649534583,-0.5159023823216558,-0.8536276501599445,-0.7088665460221796,0.6874769928476249,0.47952888725391946,0.5928325685388569,0.1398755084727767,0.6925785452154782,-0.8176054507944643,0.028230229207767188,-0.6731856316328049,-0.279426003806293,0.6161001366563141,-0.7195046902634203,0.6263207490555942,-0.5128536373376846,0.24955499917268753,0.2911983105577797,0.2978498911818534,0.11984202378368787,-0.027663942171096557,-0.9207591679564738,0.6837758532710151,0.47569797269322456,-0.788642270621109,-0.00588129215030858,0.5286503001116216,0.3898040959611535,-0.4669754528440535,-0.266668024007231,0.6697876299731433,-0.858031845651567,-0.8616401781328022,-0.7780183875791596,-0.3971096125541269,-0.0885929241929656,0.7191123127482592,0.7372272601760577,0.11466387744498237,0.14352484359424084,-0.621825257781893,-0.2119545047171414,-0.8069669408723712,-0.5662148986011744,0.04981367848813534,-0.9021350960247219,-0.66758325509727,0.1531393867917359,0.1553014749661088,0.894886216643531,-0.4444346513550721,-0.511407981891838,-0.2597602946496982,-0.42505107378745843,0.24035644554145857,0.09730714456272468,0.22256530914455652,0.1427500331774354,0.7711062761954963,0.024639671202749014,-0.47556243324652314,0.46744624990969896,-0.9532066420651972,0.9093000418506563,-0.826676432043314,0.04950355976463482,-0.7388034632557348,-0.5447194903545195,0.911014823364846,-0.5054584746179149,0.47528127604196735,-0.28389260995842075,-0.8922191331215419,0.18876707926392555,0.21116972481831908,0.38178963121026754,0.7347075063735247,-0.3362867133691907,-0.0786632476374507,0.6846625623293221,-0.2931010266765952,0.27097771292296874,-0.7863629559036436,-0.9927483551424896,0.23750129373737439,-0.31752393066583,0.5936807707552921,0.6489929815789477,-0.883823465090245,-0.3637652979232371,0.2673262069001794,0.6565382005646825,0.4882397376932204,0.06619976554065943,0.8624892327934504,-0.05177807994186878,-0.2311998400837183,0.5540946858910184,-0.5194172969913567,-0.18201241208346247,-0.2138840939384242,-0.5776864642101908,-0.5364583464555983,-0.31433390478240836,0.9368493901565671,0.20838559372350574,0.5164987407624722,-0.5422991551458836,-0.7544650076888502,-0.25816774228587747,0.10540210781618953,-0.845036362297833,0.8316627768799663],"bias":0.0769515166496737}],"inputSize":256},{"size":4,"neurons":[{"weights":[0.7411125654581652,0.1860663116833951,0.5821321079563999,-0.08464109345605496,1.053413493814044,-2.03581641066913,-0.1796491360570178,2.51315759350195,-0.07354644697078933,0.12704538072443666],"bias":0.89954035495257},{"weights":[-0.0011517177012406552,-0.0059398686226644236,-0.0005927819609415633,-0.007337230057443032,0.006702210348092339,-0.011752764278928149,0.004076329504546721,-0.01617616483284374,0.000010930851188130632,0.003434033688558652],"bias":0.005173686693916167},{"weights":[-0.0328882418266182,2.4783586979478103,-2.4311519786821516,0.05069799539693402,1.0299138682001139,0.6440045293474016,0.10338654459520305,0.4720180638811242,0.45592982023891204,-0.12809476730254735],"bias":1.053699317675048},{"weights":[-0.04137210915698581,0.1847689264309147,0.7036685215740262,-0.07754744301069373,-2.5751736765950564,0.7158651350021178,-0.16277782414561642,0.3068866619359915,-0.09142091696767392,0.021334812202294957],"bias":1.412000704416074}],"inputSize":10}],"inputSize":256,"layerSizes":[10,4]});


window.randGen = 0;
window.avg = 0;

function run(){
    if(game.over){
        console.log('-----------------------');
        console.log("score: ", game.score);
        scores.push(game.score);
        var avg = 0;
        var rollingAvg = 0;
        var games = scores.length;
        for(var i = 0; i < games; i++){
            avg += scores[i];
            if(i + 20 > games)
                rollingAvg += scores[i];
        }
        console.log("game: ", games);
        console.log("avg: ", avg / games);
        console.log("roll avg: ", rollingAvg / 20);
        game.restart();
        generation++;
        if(generation == 250000) {
            alert(scores);
            return;
        }
    }

    if(brain.age > 300000) brain.learning = false;
    if(brain.age == brain.burnIn){
        window.randGen = generation;
        var avg = 0;
        for(var i = 0; i < scores.length; i++){
            avg += scores[i];
        }
        window.avg = avg / scores.length;
    }

    var state = getValues();
    var startScore = game.score;
    var values = getValues();
    var moveOuts = moveNet.fire(values);
    var action = brain.forward(values.concat(getLast(moveOuts)));
    game.move(action);
    var endScore = game.score;
    var scoreDif = endScore - startScore ? endScore - startScore : 0;
    var largest = largestTile();
    var reward = scoreDif / (1.25 * largest) > 1 ? 1 : scoreDif / (largest * 1.25);
    if(game.over) reward = 0;

    var target = getLast(moveOuts);
    target[action] = moved(state, getValues()) ? 1 : 0;
    moveNet.learn(target, moveOuts);

	var event = new Event('done' + brain.age);
    setTimeout(function(){
        brain.backward(reward);
        document.dispatchEvent(event);
    }, window.speed / 2);

    document.addEventListener('done' + brain.age, function(){
        var exp = brain.experiences;
        var countTotal = exp.length;
        datEl0.innerHTML = moves++;
        datEl1.innerHTML = countTotal;

        document.removeEventListener('done' + brain.age, this);

        setTimeout(run,window.speed / 2);
    });
}

function shuffle(array) {
    var counter = array.length, temp, index;

    // While there are elements in the array
    while (counter > 0) {
        // Pick a random index
        index = Math.floor(Math.random() * counter);

        // Decrease counter by 1
        counter--;

        // And swap the last element with it
        temp = array[counter];
        array[counter] = array[index];
        array[index] = temp;
    }

    return array;
}

function getEmptyTiles(){
    var empty = [];
    for(var i = 0; i < 4; i++){
        for(var j = 0; j < 4; j++){
            if(game.grid.cells[i][j] == 0) empty.push(game.grid.cells[i][j]);
        }
    }
    return empty;
}

function moved(prev, cur){
    for(var i = 0; i < cur.length; i++){
       if(prev[i] != cur[i]) return true;
    }
    return false;
}

function largestTile(){
    var tiles = [];
    for(var i = 0; i < 4; i++){
    for(var j= 0; j < 4; j++){
        tiles.push(game.grid.cells[i][j] ? game.grid.cells[i][j].value : 0);
    }
    }
    return Math.max.apply(null, tiles);
}

function getValues(){
    var cells = [];
    for(var i = 0; i < 4; i++){
        for(var j = 0; j < 4; j++){
            cells.push(game.grid.cells[i][j] ? game.grid.cells[i][j].value : 0);
        }
    }
    //var largest = Math.max.apply(null,ret);
    var ret = [];
    for(var i = 0; i < 16; i++){
        var temp = Math.log2(cells[i]);
        cells[i] = temp < 0 ? 0 : temp;
        var arr = [0,0,0,0,0,0,0,0,0,0,0,0,0,0,0,0];
        arr[cells[i]] = 1;
        ret = ret.concat(arr);
    }
    return ret;
}

function getLast(arr){
    return arr[arr.length - 1];
}